<?xml version="1.0"?>
<opencv_storage>
<cascade>
  <stageType>BOOST</stageType>
  <featureType>HAAR</featureType>
  <height>24</height>
  <width>24</width>
  <stageParams>
    <boostType>GAB</boostType>
    <minHitRate>9.9500000476837158e-01</minHitRate>
    <maxFalseAlarm>5.0000000000000000e-01</maxFalseAlarm>
    <weightTrimRate>9.4999998807907104e-01</weightTrimRate>
    <maxDepth>1</maxDepth>
    <maxWeakCount>100</maxWeakCount></stageParams>
  <featureParams>
    <maxCatCount>0</maxCatCount>
    <featSize>1</featSize>
    <mode>BASIC</mode></featureParams>
  <stageNum>19</stageNum>
  <stages>
    <!-- stage 0 -->
    <_>
      <maxWeakCount>5</maxWeakCount>
      <stageThreshold>-1.9776927232742310e+00</stageThreshold>
      <weakClassifiers>
        <_>
          <internalNodes>
            0 -1 100 6.2909141182899475e-02</internalNodes>
          <leafValues>
            -8.9407312870025635e-01 7.3628938198089600e-01</leafValues></_>
        <_>
          <internalNodes>
            0 -1 6 -2.0901676267385483e-02</internalNodes>
          <leafValues>
            6.8140232563018799e-01 -7.3833566904067993e-01</leafValues></_>
        <_>
          <internalNodes>
            0 -1 27 -2.8447024524211884e-02</internalNodes>
          <leafValues>
            6.7302340269088745e-01 -5.0741678476333618e-01</leafValues></_>
        <_>
          <internalNodes>
            0 -1 94 2.2551564499735832e-02</internalNodes>
          <leafValues>
            -4.0249082446098328e-01 7.1268481016159058e-01</leafValues></_>
        <_>
          <internalNodes>
            0 -1 99 -5.4999671876430511e-02</internalNodes>
          <leafValues>
            5.6462365388870239e-01 -4.3956339359283447e-01</leafValues></_></weakClassifiers></_>
    <!-- stage 1 -->
    <_>
      <maxWeakCount>6</maxWeakCount>
      <stageThreshold>-1.7562505006790161e+00</stageThreshold>
      <weakClassifiers>
        <_>
          <internalNodes>
            0 -1 86 7.7543459832668304e-02</internalNodes>
          <leafValues>
            -6.8374162912368774e-01 7.1276593208312988e-01</leafValues></_>
        <_>
          <internalNodes>
            0 -1 21 -2.7395933866500854e-02</internalNodes>
          <leafValues>
            6.6549247503280640e-01 -6.4679634571075439e-01</leafValues></_>
        <_>
          <internalNodes>
            0 -1 174 -2.4957407731562853e-04</internalNodes>
          <leafValues>
            6.2266188859939575e-01 -6.2411320209503174e-01</leafValues></_>
        <_>
          <internalNodes>
            0 -1 110 9.1031091287732124e-03</internalNodes>
          <leafValues>
            -4.5657524466514587e-01 5.8808761835098267e-01</leafValues></_>
        <_>
          <internalNodes>
            0 -1 181 -2.6050198357552290e-04</internalNodes>
          <leafValues>
            -8.3209651708602905e-01 2.6869484782218933e-01</leafValues></_>
        <_>
          <internalNodes>
            0 -1 120 -6.0991416685283184e-03</internalNodes>
          <leafValues>
            3.8628104329109192e-01 -6.3853883743286133e-01</leafValues></_></weakClassifiers></_>
    <!-- stage 2 -->
    <_>
      <maxWeakCount>6</maxWeakCount>
      <stageThreshold>-1.4981107711791992e+00</stageThreshold>
      <weakClassifiers>
        <_>
          <internalNodes>
            0 -1 182 2.0994646474719048e-03</internalNodes>
          <leafValues>
            -8.2420748472213745e-01 5.1673638820648193e-01</leafValues></_>
        <_>
          <internalNodes>
            0 -1 74 -1.1570079624652863e-01</internalNodes>
          <leafValues>
            4.7233399748802185e-01 -8.0156320333480835e-01</leafValues></_>
        <_>
          <internalNodes>
            0 -1 34 7.7508380636572838e-03</internalNodes>
          <leafValues>
            -5.4648685455322266e-01 6.5330195426940918e-01</leafValues></_>
        <_>
          <internalNodes>
            0 -1 145 1.6819344833493233e-02</internalNodes>
          <leafValues>
            -3.4749656915664673e-01 6.9251054525375366e-01</leafValues></_>
        <_>
          <internalNodes>
            0 -1 40 -1.0292287915945053e-02</internalNodes>
          <leafValues>
            4.5417559146881104e-01 -5.4732501506805420e-01</leafValues></_>
        <_>
          <internalNodes>
            0 -1 143 -1.9251134945079684e-03</internalNodes>
          <leafValues>
            5.6746774911880493e-01 -4.0847033262252808e-01</leafValues></_></weakClassifiers></_>
    <!-- stage 3 -->
    <_>
      <maxWeakCount>8</maxWeakCount>
      <stageThreshold>-1.6470963954925537e+00</stageThreshold>
      <weakClassifiers>
        <_>
          <internalNodes>
            0 -1 19 -1.2382380664348602e-01</internalNodes>
          <leafValues>
            6.7724865674972534e-01 -6.5995526313781738e-01</leafValues></_>
        <_>
          <internalNodes>
            0 -1 97 -1.2445396743714809e-02</internalNodes>
          <leafValues>
            6.6704738140106201e-01 -5.0884616374969482e-01</leafValues></_>
        <_>
          <internalNodes>
            0 -1 45 -2.0421594381332397e-01</internalNodes>
          <leafValues>
            4.8752558231353760e-01 -6.0443568229675293e-01</leafValues></_>
        <_>
          <internalNodes>
            0 -1 106 7.9989638179540634e-03</internalNodes>
          <leafValues>
            -4.1527605056762695e-01 5.6156104803085327e-01</leafValues></_>
        <_>
          <internalNodes>
            0 -1 4 1.9919003825634718e-03</internalNodes>
          <leafValues>
            -5.8889269828796387e-01 3.7786820530891418e-01</leafValues></_>
        <_>
          <internalNodes>
            0 -1 113 -1.1091890931129456e-01</internalNodes>
          <leafValues>
            -9.0681588649749756e-01 2.0359970629215240e-01</leafValues></_>
        <_>
          <internalNodes>
            0 -1 77 -9.1300881467759609e-04</internalNodes>
          <leafValues>
            4.1798892617225647e-01 -4.4184237718582153e-01</leafValues></_>
        <_>
          <internalNodes>
            0 -1 23 -5.1890116184949875e-02</internalNodes>
          <leafValues>
            4.0527847409248352e-01 -4.6811625361442566e-01</leafValues></_></weakClassifiers></_>
    <!-- stage 4 -->
    <_>
      <maxWeakCount>9</maxWeakCount>
      <stageThreshold>-1.3006502389907837e+00</stageThreshold>
      <weakClassifiers>
        <_>
          <internalNodes>
            0 -1 24 -6.1092749238014221e-02</internalNodes>
          <leafValues>
            6.1498707532882690e-01 -6.3242006301879883e-01</leafValues></_>
        <_>
          <internalNodes>
            0 -1 112 1.2787079811096191e-01</internalNodes>
          <leafValues>
            -6.7471128702163696e-01 4.9927857518196106e-01</leafValues></_>
        <_>
          <internalNodes>
            0 -1 84 -2.4389199912548065e-02</internalNodes>
          <leafValues>
            6.4936107397079468e-01 -4.0184336900711060e-01</leafValues></_>
        <_>
          <internalNodes>
            0 -1 59 -1.3634166680276394e-03</internalNodes>
          <leafValues>
            4.5865967869758606e-01 -4.6099448204040527e-01</leafValues></_>
        <_>
          <internalNodes>
            0 -1 147 -4.2208310333080590e-04</internalNodes>
          <leafValues>
            4.8001059889793396e-01 -4.2060410976409912e-01</leafValues></_>
        <_>
          <internalNodes>
            0 -1 14 -4.9335397779941559e-02</internalNodes>
          <leafValues>
            -9.8472577333450317e-01 2.8835389018058777e-01</leafValues></_>
        <_>
          <internalNodes>
            0 -1 183 -1.7611859948374331e-04</internalNodes>
          <leafValues>
            -7.6754152774810791e-01 2.1520853042602539e-01</leafValues></_>
        <_>
          <internalNodes>
            0 -1 166 -7.1297821705229580e-05</internalNodes>
          <leafValues>
            3.6994978785514832e-01 -5.3380441665649414e-01</leafValues></_>
        <_>
          <internalNodes>
            0 -1 75 -1.5593996271491051e-02</internalNodes>
          <leafValues>
            4.9854627251625061e-01 -3.8044753670692444e-01</leafValues></_></weakClassifiers></_>
    <!-- stage 5 -->
    <_>
      <maxWeakCount>9</maxWeakCount>
      <stageThreshold>-1.3616490364074707e+00</stageThreshold>
      <weakClassifiers>
        <_>
          <internalNodes>
            0 -1 151 3.5867267288267612e-03</internalNodes>
          <leafValues>
            -7.4885147809982300e-01 4.1223672032356262e-01</leafValues></_>
        <_>
          <internalNodes>
            0 -1 50 -1.5966410934925079e-01</internalNodes>
          <leafValues>
            3.3153006434440613e-01 -8.0463302135467529e-01</leafValues></_>
        <_>
          <internalNodes>
            0 -1 35 1.3137198984622955e-02</internalNodes>
          <leafValues>
            -4.6004816889762878e-01 5.7481831312179565e-01</leafValues></_>
        <_>
          <internalNodes>
            0 -1 192 -2.0667343051172793e-04</internalNodes>
          <leafValues>
            -6.0841381549835205e-01 3.0789691209793091e-01</leafValues></_>
        <_>
          <internalNodes>
            0 -1 108 -5.1716202870011330e-04</internalNodes>
          <leafValues>
            4.0124681591987610e-01 -4.1125982999801636e-01</leafValues></_>
        <_>
          <internalNodes>
            0 -1 153 -3.1464057974517345e-04</internalNodes>
          <leafValues>
            4.1079008579254150e-01 -3.7994298338890076e-01</leafValues></_>
        <_>
          <internalNodes>
            0 -1 8 -5.6793540716171265e-03</internalNodes>
          <leafValues>
            -8.4578990936279297e-01 1.3413757085800171e-01</leafValues></_>
        <_>
          <internalNodes>
            0 -1 15 7.9205065965652466e-02</internalNodes>
          <leafValues>
            1.5344959497451782e-01 -9.2772310972213745e-01</leafValues></_>
        <_>
          <internalNodes>
            0 -1 37 4.7846580855548382e-05</internalNodes>
          <leafValues>
            1.6067339479923248e-01 -7.5029116868972778e-01</leafValues></_></weakClassifiers></_>
    <!-- stage 6 -->
    <_>
      <maxWeakCount>12</maxWeakCount>
      <stageThreshold>-1.5519961118698120e+00</stageThreshold>
      <weakClassifiers>
        <_>
          <internalNodes>
            0 -1 187 4.6947208466008306e-04</internalNodes>
          <leafValues>
            -8.0969476699829102e-01 3.4126257896423340e-01</leafValues></_>
        <_>
          <internalNodes>
            0 -1 51 -1.8078258633613586e-01</internalNodes>
          <leafValues>
            3.5923540592193604e-01 -7.2528350353240967e-01</leafValues></_>
        <_>
          <internalNodes>
            0 -1 199 4.5748114644084126e-05</internalNodes>
          <leafValues>
            2.3631945252418518e-01 -8.4242045879364014e-01</leafValues></_>
        <_>
          <internalNodes>
            0 -1 44 -1.0770152509212494e-01</internalNodes>
          <leafValues>
            7.4909204244613647e-01 -3.1158185005187988e-01</leafValues></_>
        <_>
          <internalNodes>
            0 -1 176 -9.8280410747975111e-04</internalNodes>
          <leafValues>
            4.9103239178657532e-01 -4.4097709655761719e-01</leafValues></_>
        <_>
          <internalNodes>
            0 -1 137 -6.9080501794815063e-02</internalNodes>
          <leafValues>
            6.6435801982879639e-01 -3.0782610177993774e-01</leafValues></_>
        <_>
          <internalNodes>
            0 -1 163 -1.2939729458594229e-05</internalNodes>
          <leafValues>
            4.6777531504631042e-01 -3.4465605020523071e-01</leafValues></_>
        <_>
          <internalNodes>
            0 -1 96 -2.8023712802678347e-03</internalNodes>
          <leafValues>
            -8.1648874282836914e-01 1.7720888555049896e-01</leafValues></_>
        <_>
          <internalNodes>
            0 -1 56 -4.5793205499649048e-02</internalNodes>
          <leafValues>
            3.5520756244659424e-01 -4.2927914857864380e-01</leafValues></_>
        <_>
          <internalNodes>
            0 -1 101 -1.2939729458594229e-05</internalNodes>
          <leafValues>
            3.7544852495193481e-01 -5.2352535724639893e-01</leafValues></_>
        <_>
          <internalNodes>
            0 -1 43 3.6766915582120419e-03</internalNodes>
          <leafValues>
            -2.5772911310195923e-01 5.9653413295745850e-01</leafValues></_>
        <_>
          <internalNodes>
            0 -1 54 -2.8572410345077515e-02</internalNodes>
          <leafValues>
            6.2589800357818604e-01 -2.3390945792198181e-01</leafValues></_></weakClassifiers></_>
    <!-- stage 7 -->
    <_>
      <maxWeakCount>12</maxWeakCount>
      <stageThreshold>-1.4789316654205322e+00</stageThreshold>
      <weakClassifiers>
        <_>
          <internalNodes>
            0 -1 142 1.0664229094982147e-01</internalNodes>
          <leafValues>
            -4.4552528858184814e-01 6.1093246936798096e-01</leafValues></_>
        <_>
          <internalNodes>
            0 -1 39 2.0684812217950821e-02</internalNodes>
          <leafValues>
            -6.4023977518081665e-01 4.5259463787078857e-01</leafValues></_>
        <_>
          <internalNodes>
            0 -1 31 2.9948040843009949e-02</internalNodes>
          <leafValues>
            -4.1357326507568359e-01 5.7495540380477905e-01</leafValues></_>
        <_>
          <internalNodes>
            0 -1 53 -2.1773852407932281e-02</internalNodes>
          <leafValues>
            4.5220202207565308e-01 -4.3476995825767517e-01</leafValues></_>
        <_>
          <internalNodes>
            0 -1 172 5.0717201083898544e-03</internalNodes>
          <leafValues>
            2.1902292966842651e-01 -7.7684706449508667e-01</leafValues></_>
        <_>
          <internalNodes>
            0 -1 195 -8.1586185842752457e-04</internalNodes>
          <leafValues>
            -6.5098381042480469e-01 2.5128734111785889e-01</leafValues></_>
        <_>
          <internalNodes>
            0 -1 102 -1.3761871960014105e-03</internalNodes>
          <leafValues>
            -8.5251504182815552e-01 1.5736120939254761e-01</leafValues></_>
        <_>
          <internalNodes>
            0 -1 89 1.9917448298656382e-05</internalNodes>
          <leafValues>
            -5.3547942638397217e-01 2.3810371756553650e-01</leafValues></_>
        <_>
          <internalNodes>
            0 -1 76 5.0451520830392838e-02</internalNodes>
          <leafValues>
            1.3686093688011169e-01 -9.1084462404251099e-01</leafValues></_>
        <_>
          <internalNodes>
            0 -1 61 -5.3762318566441536e-03</internalNodes>
          <leafValues>
            6.1346584558486938e-01 -2.6831033825874329e-01</leafValues></_>
        <_>
          <internalNodes>
            0 -1 164 2.0131277851760387e-03</internalNodes>
          <leafValues>
            1.9314311444759369e-01 -8.0823498964309692e-01</leafValues></_>
        <_>
          <internalNodes>
            0 -1 140 1.2848434969782829e-02</internalNodes>
          <leafValues>
            -3.0636301636695862e-01 4.3854567408561707e-01</leafValues></_></weakClassifiers></_>
    <!-- stage 8 -->
    <_>
      <maxWeakCount>12</maxWeakCount>
      <stageThreshold>-1.6851745843887329e+00</stageThreshold>
      <weakClassifiers>
        <_>
          <internalNodes>
            0 -1 135 2.6666899211704731e-03</internalNodes>
          <leafValues>
            -7.0412516593933105e-01 4.4033789634704590e-01</leafValues></_>
        <_>
          <internalNodes>
            0 -1 197 -7.8910065349191427e-04</internalNodes>
          <leafValues>
            3.6324256658554077e-01 -6.1604857444763184e-01</leafValues></_>
        <_>
          <internalNodes>
            0 -1 126 6.0706611722707748e-02</internalNodes>
          <leafValues>
            -5.2705353498458862e-01 3.7303459644317627e-01</leafValues></_>
        <_>
          <internalNodes>
            0 -1 22 -8.2666948437690735e-02</internalNodes>
          <leafValues>
            4.3878749012947083e-01 -4.3762949109077454e-01</leafValues></_>
        <_>
          <internalNodes>
            0 -1 29 -1.4381015207618475e-03</internalNodes>
          <leafValues>
            2.6102113723754883e-01 -5.8780646324157715e-01</leafValues></_>
        <_>
          <internalNodes>
            0 -1 68 -1.3194559141993523e-02</internalNodes>
          <leafValues>
            6.0760170221328735e-01 -2.5095391273498535e-01</leafValues></_>
        <_>
          <internalNodes>
            0 -1 185 -1.0336034465581179e-03</internalNodes>
          <leafValues>
            -8.7170767784118652e-01 1.8600898981094360e-01</leafValues></_>
        <_>
          <internalNodes>
            0 -1 130 -7.6262536458671093e-04</internalNodes>
          <leafValues>
            3.2202503085136414e-01 -4.7166159749031067e-01</leafValues></_>
        <_>
          <internalNodes>
            0 -1 134 4.9794185906648636e-04</internalNodes>
          <leafValues>
            3.5294926166534424e-01 -4.7532618045806885e-01</leafValues></_>
        <_>
          <internalNodes>
            0 -1 30 -3.2940074801445007e-02</internalNodes>
          <leafValues>
            -7.4937635660171509e-01 1.7397011816501617e-01</leafValues></_>
        <_>
          <internalNodes>
            0 -1 85 -6.8199872039258480e-03</internalNodes>
          <leafValues>
            -9.5365381240844727e-01 1.2646141648292542e-01</leafValues></_>
        <_>
          <internalNodes>
            0 -1 26 1.4146346598863602e-02</internalNodes>
          <leafValues>
            -2.9940408468246460e-01 4.4647803902626038e-01</leafValues></_></weakClassifiers></_>
    <!-- stage 9 -->
    <_>
      <maxWeakCount>12</maxWeakCount>
      <stageThreshold>-1.4812724590301514e+00</stageThreshold>
      <weakClassifiers>
        <_>
          <internalNodes>
            0 -1 7 -3.4902360290288925e-02</internalNodes>
          <leafValues>
            3.6023622751235962e-01 -7.0031547546386719e-01</leafValues></_>
        <_>
          <internalNodes>
            0 -1 115 -1.1330526322126389e-02</internalNodes>
          <leafValues>
            3.9631146192550659e-01 -5.7941484451293945e-01</leafValues></_>
        <_>
          <internalNodes>
            0 -1 46 -1.5117719769477844e-02</internalNodes>
          <leafValues>
            6.5909993648529053e-01 -3.0891156196594238e-01</leafValues></_>
        <_>
          <internalNodes>
            0 -1 111 1.4383701607584953e-02</internalNodes>
          <leafValues>
            -7.4645662307739258e-01 2.3756317794322968e-01</leafValues></_>
        <_>
          <internalNodes>
            0 -1 146 -2.0916966605000198e-04</internalNodes>
          <leafValues>
            3.9223662018775940e-01 -3.8914990425109863e-01</leafValues></_>
        <_>
          <internalNodes>
            0 -1 90 2.5363257154822350e-03</internalNodes>
          <leafValues>
            -4.2181316018104553e-01 3.7872168421745300e-01</leafValues></_>
        <_>
          <internalNodes>
            0 -1 114 -1.6484932275488973e-03</internalNodes>
          <leafValues>
            2.2799977660179138e-01 -6.5412032604217529e-01</leafValues></_>
        <_>
          <internalNodes>
            0 -1 73 -7.2456775233149529e-03</internalNodes>
          <leafValues>
            5.4827207326889038e-01 -2.5286677479743958e-01</leafValues></_>
        <_>
          <internalNodes>
            0 -1 1 -5.3487522527575493e-03</internalNodes>
          <leafValues>
            6.2684875726699829e-01 -2.2272673249244690e-01</leafValues></_>
        <_>
          <internalNodes>
            0 -1 180 -5.0561902753543109e-05</internalNodes>
          <leafValues>
            -7.2732245922088623e-01 2.4743978679180145e-01</leafValues></_>
        <_>
          <internalNodes>
            0 -1 193 -4.5658955059479922e-05</internalNodes>
          <leafValues>
            -5.7719182968139648e-01 1.8163551390171051e-01</leafValues></_>
        <_>
          <internalNodes>
            0 -1 107 2.5185447186231613e-02</internalNodes>
          <leafValues>
            -2.8209877014160156e-01 5.8069813251495361e-01</leafValues></_></weakClassifiers></_>
    <!-- stage 10 -->
    <_>
      <maxWeakCount>11</maxWeakCount>
      <stageThreshold>-1.6180008649826050e+00</stageThreshold>
      <weakClassifiers>
        <_>
          <internalNodes>
            0 -1 190 3.1905856449157000e-03</internalNodes>
          <leafValues>
            -7.2413790225982666e-01 3.4870317578315735e-01</leafValues></_>
        <_>
          <internalNodes>
            0 -1 52 -1.6060709021985531e-03</internalNodes>
          <leafValues>
            3.0615770816802979e-01 -6.0760158300399780e-01</leafValues></_>
        <_>
          <internalNodes>
            0 -1 55 6.9461916573345661e-03</internalNodes>
          <leafValues>
            -6.5539133548736572e-01 2.3866076767444611e-01</leafValues></_>
        <_>
          <internalNodes>
            0 -1 167 -1.2475546100176871e-04</internalNodes>
          <leafValues>
            4.8203852772712708e-01 -3.4184157848358154e-01</leafValues></_>
        <_>
          <internalNodes>
            0 -1 138 -6.5301351249217987e-02</internalNodes>
          <leafValues>
            6.1275595426559448e-01 -3.1009638309478760e-01</leafValues></_>
        <_>
          <internalNodes>
            0 -1 157 1.3828396913595498e-04</internalNodes>
          <leafValues>
            3.5902503132820129e-01 -4.4178605079650879e-01</leafValues></_>
        <_>
          <internalNodes>
            0 -1 69 2.2050064802169800e-01</internalNodes>
          <leafValues>
            -4.9431046843528748e-01 2.9603603482246399e-01</leafValues></_>
        <_>
          <internalNodes>
            0 -1 129 -1.9946844986407086e-05</internalNodes>
          <leafValues>
            3.9870473742485046e-01 -3.6419039964675903e-01</leafValues></_>
        <_>
          <internalNodes>
            0 -1 38 -6.9186347536742687e-04</internalNodes>
          <leafValues>
            -8.3583235740661621e-01 1.6371932625770569e-01</leafValues></_>
        <_>
          <internalNodes>
            0 -1 9 -2.8054979629814625e-03</internalNodes>
          <leafValues>
            -7.9470163583755493e-01 1.4009229838848114e-01</leafValues></_>
        <_>
          <internalNodes>
            0 -1 49 1.3999314978718758e-04</internalNodes>
          <leafValues>
            2.0063881576061249e-01 -6.7775785923004150e-01</leafValues></_></weakClassifiers></_>
    <!-- stage 11 -->
    <_>
      <maxWeakCount>14</maxWeakCount>
      <stageThreshold>-1.5299059152603149e+00</stageThreshold>
      <weakClassifiers>
        <_>
          <internalNodes>
            0 -1 165 -1.1182611342519522e-03</internalNodes>
          <leafValues>
            2.8636780381202698e-01 -7.0197486877441406e-01</leafValues></_>
        <_>
          <internalNodes>
            0 -1 98 -5.6446291506290436e-02</internalNodes>
          <leafValues>
            2.0068803429603577e-01 -8.0467134714126587e-01</leafValues></_>
        <_>
          <internalNodes>
            0 -1 71 1.1411005107220262e-04</internalNodes>
          <leafValues>
            -5.7904690504074097e-01 3.2727137207984924e-01</leafValues></_>
        <_>
          <internalNodes>
            0 -1 0 -9.0400397777557373e-02</internalNodes>
          <leafValues>
            2.5537249445915222e-01 -6.3674944639205933e-01</leafValues></_>
        <_>
          <internalNodes>
            0 -1 93 4.3648717110045254e-04</internalNodes>
          <leafValues>
            -3.0194976925849915e-01 5.6155842542648315e-01</leafValues></_>
        <_>
          <internalNodes>
            0 -1 117 9.1172277927398682e-02</internalNodes>
          <leafValues>
            -4.3946102261543274e-01 3.2671272754669189e-01</leafValues></_>
        <_>
          <internalNodes>
            0 -1 32 3.8208991289138794e-02</internalNodes>
          <leafValues>
            -2.7503964304924011e-01 6.2533313035964966e-01</leafValues></_>
        <_>
          <internalNodes>
            0 -1 141 9.6854418516159058e-03</internalNodes>
          <leafValues>
            -3.3356663584709167e-01 4.1714444756507874e-01</leafValues></_>
        <_>
          <internalNodes>
            0 -1 119 -3.2389551051892340e-04</internalNodes>
          <leafValues>
            -9.2897230386734009e-01 1.2551839649677277e-01</leafValues></_>
        <_>
          <internalNodes>
            0 -1 177 -3.9074223604984581e-04</internalNodes>
          <leafValues>
            3.5045999288558960e-01 -3.6139047145843506e-01</leafValues></_>
        <_>
          <internalNodes>
            0 -1 169 -1.8780760001391172e-03</internalNodes>
          <leafValues>
            -8.9749360084533691e-01 1.7401754856109619e-01</leafValues></_>
        <_>
          <internalNodes>
            0 -1 17 -3.7943795323371887e-02</internalNodes>
          <leafValues>
            7.2505515813827515e-01 -2.1222966909408569e-01</leafValues></_>
        <_>
          <internalNodes>
            0 -1 173 4.5763888920191675e-05</internalNodes>
          <leafValues>
            2.6031044125556946e-01 -5.1632791757583618e-01</leafValues></_>
        <_>
          <internalNodes>
            0 -1 65 1.6051790225901641e-05</internalNodes>
          <leafValues>
            1.8744759261608124e-01 -6.5477436780929565e-01</leafValues></_></weakClassifiers></_>
    <!-- stage 12 -->
    <_>
      <maxWeakCount>11</maxWeakCount>
      <stageThreshold>-1.3993375301361084e+00</stageThreshold>
      <weakClassifiers>
        <_>
          <internalNodes>
            0 -1 174 -2.5478913448750973e-04</internalNodes>
          <leafValues>
            3.9756366610527039e-01 -5.8500671386718750e-01</leafValues></_>
        <_>
          <internalNodes>
            0 -1 83 5.1258787512779236e-02</internalNodes>
          <leafValues>
            -5.9026259183883667e-01 4.0072685480117798e-01</leafValues></_>
        <_>
          <internalNodes>
            0 -1 186 -4.8264511860907078e-05</internalNodes>
          <leafValues>
            -8.7416666746139526e-01 1.9518749415874481e-01</leafValues></_>
        <_>
          <internalNodes>
            0 -1 103 -2.4964679032564163e-02</internalNodes>
          <leafValues>
            2.3242476582527161e-01 -7.7423989772796631e-01</leafValues></_>
        <_>
          <internalNodes>
            0 -1 79 1.7339866608381271e-03</internalNodes>
          <leafValues>
            -6.2789618968963623e-01 2.3431046307086945e-01</leafValues></_>
        <_>
          <internalNodes>
            0 -1 168 -1.8267261330038309e-03</internalNodes>
          <leafValues>
            -8.7297928333282471e-01 1.3856685161590576e-01</leafValues></_>
        <_>
          <internalNodes>
            0 -1 42 -2.7075558900833130e-02</internalNodes>
          <leafValues>
            4.8596310615539551e-01 -3.1266948580741882e-01</leafValues></_>
        <_>
          <internalNodes>
            0 -1 198 5.2032923122169450e-05</internalNodes>
          <leafValues>
            1.4235208928585052e-01 -8.3933019638061523e-01</leafValues></_>
        <_>
          <internalNodes>
            0 -1 105 -1.9562855362892151e-02</internalNodes>
          <leafValues>
            2.8419029712677002e-01 -5.0217396020889282e-01</leafValues></_>
        <_>
          <internalNodes>
            0 -1 175 -7.3654385050758719e-04</internalNodes>
          <leafValues>
            4.1449907422065735e-01 -3.6111319065093994e-01</leafValues></_>
        <_>
          <internalNodes>
            0 -1 132 1.3109462997817900e-05</internalNodes>
          <leafValues>
            -7.4899256229400635e-01 1.6325379908084869e-01</leafValues></_></weakClassifiers></_>
    <!-- stage 13 -->
    <_>
      <maxWeakCount>14</maxWeakCount>
      <stageThreshold>-1.5108289718627930e+00</stageThreshold>
      <weakClassifiers>
        <_>
          <internalNodes>
            0 -1 159 1.3613584451377392e-03</internalNodes>
          <leafValues>
            -8.0327868461608887e-01 2.7022376656532288e-01</leafValues></_>
        <_>
          <internalNodes>
            0 -1 58 -3.5101650282740593e-03</internalNodes>
          <leafValues>
            5.4810661077499390e-01 -3.5572591423988342e-01</leafValues></_>
        <_>
          <internalNodes>
            0 -1 80 4.6391261275857687e-04</internalNodes>
          <leafValues>
            -3.5171401500701904e-01 4.4500342011451721e-01</leafValues></_>
        <_>
          <internalNodes>
            0 -1 57 -2.1601790189743042e-01</internalNodes>
          <leafValues>
            2.8951427340507507e-01 -6.6188883781433105e-01</leafValues></_>
        <_>
          <internalNodes>
            0 -1 191 -1.3118667993694544e-04</internalNodes>
          <leafValues>
            -7.7153599262237549e-01 1.0036307573318481e-01</leafValues></_>
        <_>
          <internalNodes>
            0 -1 148 -5.3674657829105854e-04</internalNodes>
          <leafValues>
            5.1235175132751465e-01 -2.9569706320762634e-01</leafValues></_>
        <_>
          <internalNodes>
            0 -1 81 -1.3886555097997189e-03</internalNodes>
          <leafValues>
            2.3115816712379456e-01 -6.3584190607070923e-01</leafValues></_>
        <_>
          <internalNodes>
            0 -1 139 -2.5131268193945289e-04</internalNodes>
          <leafValues>
            4.3871450424194336e-01 -3.3798331022262573e-01</leafValues></_>
        <_>
          <internalNodes>
            0 -1 20 -7.2247393429279327e-02</internalNodes>
          <leafValues>
            3.7781885266304016e-01 -3.3248889446258545e-01</leafValues></_>
        <_>
          <internalNodes>
            0 -1 64 5.7427957653999329e-04</internalNodes>
          <leafValues>
            -3.5130381584167480e-01 4.0363940596580505e-01</leafValues></_>
        <_>
          <internalNodes>
            0 -1 72 8.2880165427923203e-04</internalNodes>
          <leafValues>
            2.0574079453945160e-01 -7.9040014743804932e-01</leafValues></_>
        <_>
          <internalNodes>
            0 -1 149 1.9615148194134235e-03</internalNodes>
          <leafValues>
            -4.7532504796981812e-01 2.4784241616725922e-01</leafValues></_>
        <_>
          <internalNodes>
            0 -1 188 3.1479843892157078e-03</internalNodes>
          <leafValues>
            1.8297049403190613e-01 -7.5625002384185791e-01</leafValues></_>
        <_>
          <internalNodes>
            0 -1 92 1.5316079370677471e-03</internalNodes>
          <leafValues>
            -3.4806144237518311e-01 3.3937576413154602e-01</leafValues></_></weakClassifiers></_>
    <!-- stage 14 -->
    <_>
      <maxWeakCount>14</maxWeakCount>
      <stageThreshold>-1.5229703187942505e+00</stageThreshold>
      <weakClassifiers>
        <_>
          <internalNodes>
            0 -1 189 8.4557791706174612e-04</internalNodes>
          <leafValues>
            -8.2816231250762939e-01 2.1852152049541473e-01</leafValues></_>
        <_>
          <internalNodes>
            0 -1 144 -7.8716402640566230e-05</internalNodes>
          <leafValues>
            3.8144752383232117e-01 -4.5035621523857117e-01</leafValues></_>
        <_>
          <internalNodes>
            0 -1 29 -2.4920855648815632e-03</internalNodes>
          <leafValues>
            2.0600603520870209e-01 -7.2530388832092285e-01</leafValues></_>
        <_>
          <internalNodes>
            0 -1 194 2.1506701596081257e-03</internalNodes>
          <leafValues>
            1.7997278273105621e-01 -8.6641615629196167e-01</leafValues></_>
        <_>
          <internalNodes>
            0 -1 70 1.3382606208324432e-02</internalNodes>
          <leafValues>
            -3.3825123310089111e-01 4.0757679939270020e-01</leafValues></_>
        <_>
          <internalNodes>
            0 -1 125 -2.0682665053755045e-03</internalNodes>
          <leafValues>
            -8.1603169441223145e-01 1.6008767485618591e-01</leafValues></_>
        <_>
          <internalNodes>
            0 -1 3 -2.4067750573158264e-01</internalNodes>
          <leafValues>
            3.2488450407981873e-01 -4.6516376733779907e-01</leafValues></_>
        <_>
          <internalNodes>
            0 -1 116 4.9966163933277130e-02</internalNodes>
          <leafValues>
            -2.7288895845413208e-01 6.2136316299438477e-01</leafValues></_>
        <_>
          <internalNodes>
            0 -1 11 2.1539018489420414e-03</internalNodes>
          <leafValues>
            -2.3720602691173553e-01 5.2495878934860229e-01</leafValues></_>
        <_>
          <internalNodes>
            0 -1 67 1.3022129423916340e-03</internalNodes>
          <leafValues>
            -3.7566858530044556e-01 3.9894419908523560e-01</leafValues></_>
        <_>
          <internalNodes>
            0 -1 150 -9.5944356871768832e-04</internalNodes>
          <leafValues>
            -6.1638128757476807e-01 2.4549143016338348e-01</leafValues></_>
        <_>
          <internalNodes>
            0 -1 123 -1.6920443624258041e-02</internalNodes>
          <leafValues>
            1.8234491348266602e-01 -7.7752274274826050e-01</leafValues></_>
        <_>
          <internalNodes>
            0 -1 171 -1.3307147892192006e-03</internalNodes>
          <leafValues>
            3.9467373490333557e-01 -3.7008932232856750e-01</leafValues></_>
        <_>
          <internalNodes>
            0 -1 179 -2.3985443112906069e-04</internalNodes>
          <leafValues>
            -7.3621392250061035e-01 2.0756205916404724e-01</leafValues></_></weakClassifiers></_>
    <!-- stage 15 -->
    <_>
      <maxWeakCount>13</maxWeakCount>
      <stageThreshold>-1.6496837139129639e+00</stageThreshold>
      <weakClassifiers>
        <_>
          <internalNodes>
            0 -1 184 1.8384507857263088e-03</internalNodes>
          <leafValues>
            -8.3445191383361816e-01 2.4522028863430023e-01</leafValues></_>
        <_>
          <internalNodes>
            0 -1 109 -4.8238083720207214e-02</internalNodes>
          <leafValues>
            3.2529160380363464e-01 -4.8868474364280701e-01</leafValues></_>
        <_>
          <internalNodes>
            0 -1 66 -1.0648315772414207e-02</internalNodes>
          <leafValues>
            -9.0153098106384277e-01 2.4467192590236664e-01</leafValues></_>
        <_>
          <internalNodes>
            0 -1 154 -3.4945696825161576e-04</internalNodes>
          <leafValues>
            4.6841374039649963e-01 -4.1625270247459412e-01</leafValues></_>
        <_>
          <internalNodes>
            0 -1 160 7.6537560671567917e-03</internalNodes>
          <leafValues>
            -2.9108059406280518e-01 4.7505244612693787e-01</leafValues></_>
        <_>
          <internalNodes>
            0 -1 136 -1.2554869754239917e-03</internalNodes>
          <leafValues>
            3.2884421944618225e-01 -5.7851362228393555e-01</leafValues></_>
        <_>
          <internalNodes>
            0 -1 48 1.1998015455901623e-02</internalNodes>
          <leafValues>
            -3.3652213215827942e-01 3.9346686005592346e-01</leafValues></_>
        <_>
          <internalNodes>
            0 -1 10 -6.8643003702163696e-02</internalNodes>
          <leafValues>
            5.5437898635864258e-01 -2.9310181736946106e-01</leafValues></_>
        <_>
          <internalNodes>
            0 -1 170 -1.4139632694423199e-03</internalNodes>
          <leafValues>
            3.9124095439910889e-01 -3.5609152913093567e-01</leafValues></_>
        <_>
          <internalNodes>
            0 -1 161 -2.8316187672317028e-03</internalNodes>
          <leafValues>
            -9.6910345554351807e-01 1.1653840541839600e-01</leafValues></_>
        <_>
          <internalNodes>
            0 -1 25 -1.2403519940562546e-04</internalNodes>
          <leafValues>
            -3.7134960293769836e-01 3.2797554135322571e-01</leafValues></_>
        <_>
          <internalNodes>
            0 -1 16 -4.0865812450647354e-02</internalNodes>
          <leafValues>
            7.0499050617218018e-01 -1.9622729718685150e-01</leafValues></_>
        <_>
          <internalNodes>
            0 -1 13 -6.5895525040104985e-05</internalNodes>
          <leafValues>
            -5.0467455387115479e-01 2.8556373715400696e-01</leafValues></_></weakClassifiers></_>
    <!-- stage 16 -->
    <_>
      <maxWeakCount>13</maxWeakCount>
      <stageThreshold>-1.0890512466430664e+00</stageThreshold>
      <weakClassifiers>
        <_>
          <internalNodes>
            0 -1 196 6.9529819302260876e-04</internalNodes>
          <leafValues>
            -7.5049507617950439e-01 2.6288208365440369e-01</leafValues></_>
        <_>
          <internalNodes>
            0 -1 78 6.7405879963189363e-04</internalNodes>
          <leafValues>
            -7.4019455909729004e-01 2.1477599442005157e-01</leafValues></_>
        <_>
          <internalNodes>
            0 -1 60 1.1457480490207672e-02</internalNodes>
          <leafValues>
            -4.3830320239067078e-01 3.6517333984375000e-01</leafValues></_>
        <_>
          <internalNodes>
            0 -1 63 -7.0883855223655701e-02</internalNodes>
          <leafValues>
            5.9609186649322510e-01 -3.2525619864463806e-01</leafValues></_>
        <_>
          <internalNodes>
            0 -1 87 -2.0143631845712662e-03</internalNodes>
          <leafValues>
            -6.5173947811126709e-01 2.2886595129966736e-01</leafValues></_>
        <_>
          <internalNodes>
            0 -1 131 8.8464017608202994e-05</internalNodes>
          <leafValues>
            2.3895661532878876e-01 -5.2599012851715088e-01</leafValues></_>
        <_>
          <internalNodes>
            0 -1 36 -5.3870382544118911e-05</internalNodes>
          <leafValues>
            -6.5281558036804199e-01 1.9735923409461975e-01</leafValues></_>
        <_>
          <internalNodes>
            0 -1 28 -3.0307132005691528e-01</internalNodes>
          <leafValues>
            5.5367463827133179e-01 -2.6376166939735413e-01</leafValues></_>
        <_>
          <internalNodes>
            0 -1 62 1.4207375934347510e-03</internalNodes>
          <leafValues>
            -3.4891360998153687e-01 4.6569868922233582e-01</leafValues></_>
        <_>
          <internalNodes>
            0 -1 2 2.8881032019853592e-02</internalNodes>
          <leafValues>
            1.8463113903999329e-01 -7.5692671537399292e-01</leafValues></_>
        <_>
          <internalNodes>
            0 -1 104 -4.0324516594409943e-02</internalNodes>
          <leafValues>
            1.1799852550029755e-01 -9.5260357856750488e-01</leafValues></_>
        <_>
          <internalNodes>
            0 -1 152 -7.4336821853648871e-05</internalNodes>
          <leafValues>
            3.6368498206138611e-01 -4.0503248572349548e-01</leafValues></_>
        <_>
          <internalNodes>
            0 -1 88 -5.4606691002845764e-02</internalNodes>
          <leafValues>
            4.8762983083724976e-01 -3.5710000991821289e-01</leafValues></_></weakClassifiers></_>
    <!-- stage 17 -->
    <_>
      <maxWeakCount>11</maxWeakCount>
      <stageThreshold>-1.3888994455337524e+00</stageThreshold>
      <weakClassifiers>
        <_>
          <internalNodes>
            0 -1 5 1.0740827769041061e-02</internalNodes>
          <leafValues>
            -7.7996069192886353e-01 2.7957931160926819e-01</leafValues></_>
        <_>
          <internalNodes>
            0 -1 121 2.0406133262440562e-04</internalNodes>
          <leafValues>
            -5.0507974624633789e-01 4.2251306772232056e-01</leafValues></_>
        <_>
          <internalNodes>
            0 -1 12 -3.4048836678266525e-02</internalNodes>
          <leafValues>
            2.0444391667842865e-01 -7.7830505371093750e-01</leafValues></_>
        <_>
          <internalNodes>
            0 -1 128 -5.5821787565946579e-02</internalNodes>
          <leafValues>
            -8.1718873977661133e-01 2.1299624443054199e-01</leafValues></_>
        <_>
          <internalNodes>
            0 -1 122 -1.7017707228660583e-02</internalNodes>
          <leafValues>
            4.5018845796585083e-01 -4.1668716073036194e-01</leafValues></_>
        <_>
          <internalNodes>
            0 -1 156 -1.6761988808866590e-04</internalNodes>
          <leafValues>
            4.4094273447990417e-01 -3.9934718608856201e-01</leafValues></_>
        <_>
          <internalNodes>
            0 -1 178 1.5898057608865201e-04</internalNodes>
          <leafValues>
            1.6326093673706055e-01 -8.8406115770339966e-01</leafValues></_>
        <_>
          <internalNodes>
            0 -1 133 -1.4802588848397136e-03</internalNodes>
          <leafValues>
            -9.0091603994369507e-01 1.1812321841716766e-01</leafValues></_>
        <_>
          <internalNodes>
            0 -1 41 -6.7576696164906025e-04</internalNodes>
          <leafValues>
            1.7167393863201141e-01 -6.5346527099609375e-01</leafValues></_>
        <_>
          <internalNodes>
            0 -1 91 1.5926030464470387e-03</internalNodes>
          <leafValues>
            -3.7846371531486511e-01 4.1798663139343262e-01</leafValues></_>
        <_>
          <internalNodes>
            0 -1 95 2.4813054129481316e-02</internalNodes>
          <leafValues>
            -3.9586296677589417e-01 3.2780006527900696e-01</leafValues></_></weakClassifiers></_>
    <!-- stage 18 -->
    <_>
      <maxWeakCount>10</maxWeakCount>
      <stageThreshold>-1.3057874441146851e+00</stageThreshold>
      <weakClassifiers>
        <_>
          <internalNodes>
            0 -1 127 -8.8757522404193878e-02</internalNodes>
          <leafValues>
            4.3868520855903625e-01 -4.9476134777069092e-01</leafValues></_>
        <_>
          <internalNodes>
            0 -1 158 1.0066669434309006e-02</internalNodes>
          <leafValues>
            -6.7871880531311035e-01 3.1880071759223938e-01</leafValues></_>
        <_>
          <internalNodes>
            0 -1 124 -7.6912388205528259e-02</internalNodes>
          <leafValues>
            -9.0851646661758423e-01 1.6355329751968384e-01</leafValues></_>
        <_>
          <internalNodes>
            0 -1 162 -9.2235682532191277e-03</internalNodes>
          <leafValues>
            7.1348541975021362e-01 -2.5977790355682373e-01</leafValues></_>
        <_>
          <internalNodes>
            0 -1 33 2.9413821175694466e-03</internalNodes>
          <leafValues>
            -4.4063836336135864e-01 4.1784414649009705e-01</leafValues></_>
        <_>
          <internalNodes>
            0 -1 18 -7.6396927237510681e-02</internalNodes>
          <leafValues>
            6.7686349153518677e-01 -2.7271807193756104e-01</leafValues></_>
        <_>
          <internalNodes>
            0 -1 82 5.5140140466392040e-04</internalNodes>
          <leafValues>
            -3.9583683013916016e-01 4.4988343119621277e-01</leafValues></_>
        <_>
          <internalNodes>
            0 -1 118 2.2526775865117088e-05</internalNodes>
          <leafValues>
            -9.0814459323883057e-01 1.7574645578861237e-01</leafValues></_>
        <_>
          <internalNodes>
            0 -1 47 -7.2761974297463894e-03</internalNodes>
          <leafValues>
            3.9865061640739441e-01 -4.4356259703636169e-01</leafValues></_>
        <_>
          <internalNodes>
            0 -1 155 3.6920029670000076e-03</internalNodes>
          <leafValues>
            -4.6713730692863464e-01 5.0893187522888184e-01</leafValues></_></weakClassifiers></_></stages>
  <features>
    <_>
      <rects>
        <_>
          0 0 15 24 -1.</_>
        <_>
          5 0 5 24 3.</_></rects>
      <tilted>0</tilted></_>
    <_>
      <rects>
        <_>
          0 0 12 2 -1.</_>
        <_>
          0 0 6 1 2.</_>
        <_>
          6 1 6 1 2.</_></rects>
      <tilted>0</tilted></_>
    <_>
      <rects>
        <_>
          0 0 12 13 -1.</_>
        <_>
          6 0 6 13 2.</_></rects>
      <tilted>0</tilted></_>
    <_>
      <rects>
        <_>
          0 0 21 21 -1.</_>
        <_>
          7 0 7 21 3.</_></rects>
      <tilted>0</tilted></_>
    <_>
      <rects>
        <_>
          0 0 16 1 -1.</_>
        <_>
          8 0 8 1 2.</_></rects>
      <tilted>0</tilted></_>
    <_>
      <rects>
        <_>
          0 0 16 4 -1.</_>
        <_>
          8 0 8 4 2.</_></rects>
      <tilted>0</tilted></_>
    <_>
      <rects>
        <_>
          0 0 16 8 -1.</_>
        <_>
          0 0 8 4 2.</_>
        <_>
          8 4 8 4 2.</_></rects>
      <tilted>0</tilted></_>
    <_>
      <rects>
        <_>
          0 0 16 10 -1.</_>
        <_>
          0 0 8 5 2.</_>
        <_>
          8 5 8 5 2.</_></rects>
      <tilted>0</tilted></_>
    <_>
      <rects>
        <_>
          0 0 24 1 -1.</_>
        <_>
          12 0 12 1 2.</_></rects>
      <tilted>0</tilted></_>
    <_>
      <rects>
        <_>
          0 1 1 10 -1.</_>
        <_>
          0 6 1 5 2.</_></rects>
      <tilted>0</tilted></_>
    <_>
      <rects>
        <_>
          0 1 9 19 -1.</_>
        <_>
          3 1 3 19 3.</_></rects>
      <tilted>0</tilted></_>
    <_>
      <rects>
        <_>
          0 2 2 22 -1.</_>
        <_>
          1 2 1 22 2.</_></rects>
      <tilted>0</tilted></_>
    <_>
      <rects>
        <_>
          0 2 24 12 -1.</_>
        <_>
          8 2 8 12 3.</_></rects>
      <tilted>0</tilted></_>
    <_>
      <rects>
        <_>
          0 3 2 4 -1.</_>
        <_>
          1 3 1 4 2.</_></rects>
      <tilted>0</tilted></_>
    <_>
      <rects>
        <_>
          0 3 24 5 -1.</_>
        <_>
          12 3 12 5 2.</_></rects>
      <tilted>0</tilted></_>
    <_>
      <rects>
        <_>
          0 4 20 6 -1.</_>
        <_>
          10 4 10 6 2.</_></rects>
      <tilted>0</tilted></_>
    <_>
      <rects>
        <_>
          0 5 6 13 -1.</_>
        <_>
          2 5 2 13 3.</_></rects>
      <tilted>0</tilted></_>
    <_>
      <rects>
        <_>
          0 5 6 18 -1.</_>
        <_>
          2 5 2 18 3.</_></rects>
      <tilted>0</tilted></_>
    <_>
      <rects>
        <_>
          0 5 9 12 -1.</_>
        <_>
          3 5 3 12 3.</_></rects>
      <tilted>0</tilted></_>
    <_>
      <rects>
        <_>
          0 5 15 17 -1.</_>
        <_>
          5 5 5 17 3.</_></rects>
      <tilted>0</tilted></_>
    <_>
      <rects>
        <_>
          0 6 6 14 -1.</_>
        <_>
          3 6 3 14 2.</_></rects>
      <tilted>0</tilted></_>
    <_>
      <rects>
        <_>
          0 6 8 8 -1.</_>
        <_>
          4 6 4 8 2.</_></rects>
      <tilted>0</tilted></_>
    <_>
      <rects>
        <_>
          0 6 8 15 -1.</_>
        <_>
          4 6 4 15 2.</_></rects>
      <tilted>0</tilted></_>
    <_>
      <rects>
        <_>
          0 6 24 5 -1.</_>
        <_>
          8 6 8 5 3.</_></rects>
      <tilted>0</tilted></_>
    <_>
      <rects>
        <_>
          0 7 12 11 -1.</_>
        <_>
          4 7 4 11 3.</_></rects>
      <tilted>0</tilted></_>
    <_>
      <rects>
        <_>
          0 8 2 11 -1.</_>
        <_>
          1 8 1 11 2.</_></rects>
      <tilted>0</tilted></_>
    <_>
      <rects>
        <_>
          0 8 4 16 -1.</_>
        <_>
          0 8 2 8 2.</_>
        <_>
          2 16 2 8 2.</_></rects>
      <tilted>0</tilted></_>
    <_>
      <rects>
        <_>
          0 8 12 7 -1.</_>
        <_>
          4 8 4 7 3.</_></rects>
      <tilted>0</tilted></_>
    <_>
      <rects>
        <_>
          0 8 21 12 -1.</_>
        <_>
          7 8 7 12 3.</_></rects>
      <tilted>0</tilted></_>
    <_>
      <rects>
        <_>
          0 9 7 4 -1.</_>
        <_>
          0 11 7 2 2.</_></rects>
      <tilted>0</tilted></_>
    <_>
      <rects>
        <_>
          0 9 24 14 -1.</_>
        <_>
          0 9 12 7 2.</_>
        <_>
          12 16 12 7 2.</_></rects>
      <tilted>0</tilted></_>
    <_>
      <rects>
        <_>
          0 12 6 12 -1.</_>
        <_>
          0 12 3 6 2.</_>
        <_>
          3 18 3 6 2.</_></rects>
      <tilted>0</tilted></_>
    <_>
      <rects>
        <_>
          0 17 12 6 -1.</_>
        <_>
          0 17 6 3 2.</_>
        <_>
          6 20 6 3 2.</_></rects>
      <tilted>0</tilted></_>
    <_>
      <rects>
        <_>
          0 20 6 4 -1.</_>
        <_>
          0 20 3 2 2.</_>
        <_>
          3 22 3 2 2.</_></rects>
      <tilted>0</tilted></_>
    <_>
      <rects>
        <_>
          0 20 10 4 -1.</_>
        <_>
          0 20 5 2 2.</_>
        <_>
          5 22 5 2 2.</_></rects>
      <tilted>0</tilted></_>
    <_>
      <rects>
        <_>
          0 20 12 4 -1.</_>
        <_>
          0 20 6 2 2.</_>
        <_>
          6 22 6 2 2.</_></rects>
      <tilted>0</tilted></_>
    <_>
      <rects>
        <_>
          0 21 1 3 -1.</_>
        <_>
          0 22 1 1 3.</_></rects>
      <tilted>0</tilted></_>
    <_>
      <rects>
        <_>
          0 22 1 2 -1.</_>
        <_>
          0 23 1 1 2.</_></rects>
      <tilted>0</tilted></_>
    <_>
      <rects>
        <_>
          0 23 4 1 -1.</_>
        <_>
          2 23 2 1 2.</_></rects>
      <tilted>0</tilted></_>
    <_>
      <rects>
        <_>
          1 0 6 12 -1.</_>
        <_>
          1 4 6 4 3.</_></rects>
      <tilted>0</tilted></_>
    <_>
      <rects>
        <_>
          1 0 14 8 -1.</_>
        <_>
          1 0 7 4 2.</_>
        <_>
          8 4 7 4 2.</_></rects>
      <tilted>0</tilted></_>
    <_>
      <rects>
        <_>
          1 6 8 2 -1.</_>
        <_>
          1 7 8 1 2.</_></rects>
      <tilted>0</tilted></_>
    <_>
      <rects>
        <_>
          1 8 9 3 -1.</_>
        <_>
          4 8 3 3 3.</_></rects>
      <tilted>0</tilted></_>
    <_>
      <rects>
        <_>
          1 19 10 2 -1.</_>
        <_>
          1 19 5 1 2.</_>
        <_>
          6 20 5 1 2.</_></rects>
      <tilted>0</tilted></_>
    <_>
      <rects>
        <_>
          1 19 21 3 -1.</_>
        <_>
          8 19 7 3 3.</_></rects>
      <tilted>0</tilted></_>
    <_>
      <rects>
        <_>
          2 2 19 16 -1.</_>
        <_>
          2 10 19 8 2.</_></rects>
      <tilted>0</tilted></_>
    <_>
      <rects>
        <_>
          2 3 4 8 -1.</_>
        <_>
          2 3 2 4 2.</_>
        <_>
          4 7 2 4 2.</_></rects>
      <tilted>0</tilted></_>
    <_>
      <rects>
        <_>
          2 5 1 18 -1.</_>
        <_>
          2 14 1 9 2.</_></rects>
      <tilted>0</tilted></_>
    <_>
      <rects>
        <_>
          2 20 12 4 -1.</_>
        <_>
          2 20 6 2 2.</_>
        <_>
          8 22 6 2 2.</_></rects>
      <tilted>0</tilted></_>
    <_>
      <rects>
        <_>
          2 22 2 1 -1.</_>
        <_>
          3 22 1 1 2.</_></rects>
      <tilted>0</tilted></_>
    <_>
      <rects>
        <_>
          3 0 15 18 -1.</_>
        <_>
          3 9 15 9 2.</_></rects>
      <tilted>0</tilted></_>
    <_>
      <rects>
        <_>
          3 1 18 16 -1.</_>
        <_>
          3 9 18 8 2.</_></rects>
      <tilted>0</tilted></_>
    <_>
      <rects>
        <_>
          3 7 6 2 -1.</_>
        <_>
          3 8 6 1 2.</_></rects>
      <tilted>0</tilted></_>
    <_>
      <rects>
        <_>
          3 15 9 9 -1.</_>
        <_>
          3 18 9 3 3.</_></rects>
      <tilted>0</tilted></_>
    <_>
      <rects>
        <_>
          3 18 14 6 -1.</_>
        <_>
          3 20 14 2 3.</_></rects>
      <tilted>0</tilted></_>
    <_>
      <rects>
        <_>
          3 18 18 6 -1.</_>
        <_>
          3 21 18 3 2.</_></rects>
      <tilted>0</tilted></_>
    <_>
      <rects>
        <_>
          4 0 13 8 -1.</_>
        <_>
          4 4 13 4 2.</_></rects>
      <tilted>0</tilted></_>
    <_>
      <rects>
        <_>
          4 0 18 18 -1.</_>
        <_>
          4 9 18 9 2.</_></rects>
      <tilted>0</tilted></_>
    <_>
      <rects>
        <_>
          4 3 8 2 -1.</_>
        <_>
          4 3 4 1 2.</_>
        <_>
          8 4 4 1 2.</_></rects>
      <tilted>0</tilted></_>
    <_>
      <rects>
        <_>
          4 6 5 2 -1.</_>
        <_>
          4 7 5 1 2.</_></rects>
      <tilted>0</tilted></_>
    <_>
      <rects>
        <_>
          4 13 20 6 -1.</_>
        <_>
          4 13 10 3 2.</_>
        <_>
          14 16 10 3 2.</_></rects>
      <tilted>0</tilted></_>
    <_>
      <rects>
        <_>
          5 0 15 3 -1.</_>
        <_>
          5 1 15 1 3.</_></rects>
      <tilted>0</tilted></_>
    <_>
      <rects>
        <_>
          5 1 9 19 -1.</_>
        <_>
          8 1 3 19 3.</_></rects>
      <tilted>0</tilted></_>
    <_>
      <rects>
        <_>
          5 1 6 10 -1.</_>
        <_>
          5 6 6 5 2.</_></rects>
      <tilted>0</tilted></_>
    <_>
      <rects>
        <_>
          5 18 4 4 -1.</_>
        <_>
          5 18 2 2 2.</_>
        <_>
          7 20 2 2 2.</_></rects>
      <tilted>0</tilted></_>
    <_>
      <rects>
        <_>
          5 22 2 2 -1.</_>
        <_>
          6 22 1 2 2.</_></rects>
      <tilted>0</tilted></_>
    <_>
      <rects>
        <_>
          6 0 18 13 -1.</_>
        <_>
          15 0 9 13 2.</_></rects>
      <tilted>0</tilted></_>
    <_>
      <rects>
        <_>
          6 1 6 3 -1.</_>
        <_>
          8 1 2 3 3.</_></rects>
      <tilted>0</tilted></_>
    <_>
      <rects>
        <_>
          6 1 10 6 -1.</_>
        <_>
          6 3 10 2 3.</_></rects>
      <tilted>0</tilted></_>
    <_>
      <rects>
        <_>
          6 4 18 17 -1.</_>
        <_>
          15 4 9 17 2.</_></rects>
      <tilted>0</tilted></_>
    <_>
      <rects>
        <_>
          6 7 9 11 -1.</_>
        <_>
          9 7 3 11 3.</_></rects>
      <tilted>0</tilted></_>
    <_>
      <rects>
        <_>
          6 10 2 2 -1.</_>
        <_>
          7 10 1 2 2.</_></rects>
      <tilted>0</tilted></_>
    <_>
      <rects>
        <_>
          6 20 3 3 -1.</_>
        <_>
          7 20 1 3 3.</_></rects>
      <tilted>0</tilted></_>
    <_>
      <rects>
        <_>
          6 22 16 2 -1.</_>
        <_>
          6 22 8 1 2.</_>
        <_>
          14 23 8 1 2.</_></rects>
      <tilted>0</tilted></_>
    <_>
      <rects>
        <_>
          7 0 13 16 -1.</_>
        <_>
          7 8 13 8 2.</_></rects>
      <tilted>0</tilted></_>
    <_>
      <rects>
        <_>
          7 2 15 4 -1.</_>
        <_>
          7 4 15 2 2.</_></rects>
      <tilted>0</tilted></_>
    <_>
      <rects>
        <_>
          7 9 12 15 -1.</_>
        <_>
          11 9 4 15 3.</_></rects>
      <tilted>0</tilted></_>
    <_>
      <rects>
        <_>
          7 11 2 4 -1.</_>
        <_>
          7 13 2 2 2.</_></rects>
      <tilted>0</tilted></_>
    <_>
      <rects>
        <_>
          7 12 6 6 -1.</_>
        <_>
          10 12 3 6 2.</_></rects>
      <tilted>0</tilted></_>
    <_>
      <rects>
        <_>
          7 13 8 5 -1.</_>
        <_>
          11 13 4 5 2.</_></rects>
      <tilted>0</tilted></_>
    <_>
      <rects>
        <_>
          7 14 2 3 -1.</_>
        <_>
          8 14 1 3 2.</_></rects>
      <tilted>0</tilted></_>
    <_>
      <rects>
        <_>
          7 19 6 5 -1.</_>
        <_>
          9 19 2 5 3.</_></rects>
      <tilted>0</tilted></_>
    <_>
      <rects>
        <_>
          7 20 4 4 -1.</_>
        <_>
          7 20 2 2 2.</_>
        <_>
          9 22 2 2 2.</_></rects>
      <tilted>0</tilted></_>
    <_>
      <rects>
        <_>
          8 9 14 14 -1.</_>
        <_>
          8 9 7 7 2.</_>
        <_>
          15 16 7 7 2.</_></rects>
      <tilted>0</tilted></_>
    <_>
      <rects>
        <_>
          8 12 6 8 -1.</_>
        <_>
          8 16 6 4 2.</_></rects>
      <tilted>0</tilted></_>
    <_>
      <rects>
        <_>
          8 16 8 3 -1.</_>
        <_>
          12 16 4 3 2.</_></rects>
      <tilted>0</tilted></_>
    <_>
      <rects>
        <_>
          8 17 16 5 -1.</_>
        <_>
          16 17 8 5 2.</_></rects>
      <tilted>0</tilted></_>
    <_>
      <rects>
        <_>
          9 0 8 24 -1.</_>
        <_>
          9 0 4 12 2.</_>
        <_>
          13 12 4 12 2.</_></rects>
      <tilted>0</tilted></_>
    <_>
      <rects>
        <_>
          9 0 10 15 -1.</_>
        <_>
          9 5 10 5 3.</_></rects>
      <tilted>0</tilted></_>
    <_>
      <rects>
        <_>
          9 4 2 12 -1.</_>
        <_>
          10 4 1 12 2.</_></rects>
      <tilted>0</tilted></_>
    <_>
      <rects>
        <_>
          9 6 6 12 -1.</_>
        <_>
          11 6 2 12 3.</_></rects>
      <tilted>0</tilted></_>
    <_>
      <rects>
        <_>
          9 6 4 6 -1.</_>
        <_>
          9 8 4 2 3.</_></rects>
      <tilted>0</tilted></_>
    <_>
      <rects>
        <_>
          9 6 5 6 -1.</_>
        <_>
          9 8 5 2 3.</_></rects>
      <tilted>0</tilted></_>
    <_>
      <rects>
        <_>
          9 6 7 2 -1.</_>
        <_>
          9 7 7 1 2.</_></rects>
      <tilted>0</tilted></_>
    <_>
      <rects>
        <_>
          9 13 10 10 -1.</_>
        <_>
          9 13 5 5 2.</_>
        <_>
          14 18 5 5 2.</_></rects>
      <tilted>0</tilted></_>
    <_>
      <rects>
        <_>
          9 14 12 8 -1.</_>
        <_>
          9 14 6 4 2.</_>
        <_>
          15 18 6 4 2.</_></rects>
      <tilted>0</tilted></_>
    <_>
      <rects>
        <_>
          9 20 6 3 -1.</_>
        <_>
          12 20 3 3 2.</_></rects>
      <tilted>0</tilted></_>
    <_>
      <rects>
        <_>
          9 20 14 4 -1.</_>
        <_>
          9 20 7 2 2.</_>
        <_>
          16 22 7 2 2.</_></rects>
      <tilted>0</tilted></_>
    <_>
      <rects>
        <_>
          10 0 8 14 -1.</_>
        <_>
          10 7 8 7 2.</_></rects>
      <tilted>0</tilted></_>
    <_>
      <rects>
        <_>
          10 1 9 12 -1.</_>
        <_>
          10 7 9 6 2.</_></rects>
      <tilted>0</tilted></_>
    <_>
      <rects>
        <_>
          10 5 14 15 -1.</_>
        <_>
          17 5 7 15 2.</_></rects>
      <tilted>0</tilted></_>
    <_>
      <rects>
        <_>
          10 13 1 2 -1.</_>
        <_>
          10 14 1 1 2.</_></rects>
      <tilted>0</tilted></_>
    <_>
      <rects>
        <_>
          10 22 4 2 -1.</_>
        <_>
          12 22 2 2 2.</_></rects>
      <tilted>0</tilted></_>
    <_>
      <rects>
        <_>
          11 0 5 12 -1.</_>
        <_>
          11 6 5 6 2.</_></rects>
      <tilted>0</tilted></_>
    <_>
      <rects>
        <_>
          11 0 13 22 -1.</_>
        <_>
          11 11 13 11 2.</_></rects>
      <tilted>0</tilted></_>
    <_>
      <rects>
        <_>
          11 12 11 12 -1.</_>
        <_>
          11 16 11 4 3.</_></rects>
      <tilted>0</tilted></_>
    <_>
      <rects>
        <_>
          11 16 8 8 -1.</_>
        <_>
          11 16 4 4 2.</_>
        <_>
          15 20 4 4 2.</_></rects>
      <tilted>0</tilted></_>
    <_>
      <rects>
        <_>
          11 16 10 8 -1.</_>
        <_>
          11 16 5 4 2.</_>
        <_>
          16 20 5 4 2.</_></rects>
      <tilted>0</tilted></_>
    <_>
      <rects>
        <_>
          11 17 1 4 -1.</_>
        <_>
          11 19 1 2 2.</_></rects>
      <tilted>0</tilted></_>
    <_>
      <rects>
        <_>
          12 0 2 24 -1.</_>
        <_>
          12 12 2 12 2.</_></rects>
      <tilted>0</tilted></_>
    <_>
      <rects>
        <_>
          12 2 12 4 -1.</_>
        <_>
          12 2 6 2 2.</_>
        <_>
          18 4 6 2 2.</_></rects>
      <tilted>0</tilted></_>
    <_>
      <rects>
        <_>
          12 4 12 10 -1.</_>
        <_>
          18 4 6 10 2.</_></rects>
      <tilted>0</tilted></_>
    <_>
      <rects>
        <_>
          12 5 12 18 -1.</_>
        <_>
          18 5 6 18 2.</_></rects>
      <tilted>0</tilted></_>
    <_>
      <rects>
        <_>
          12 6 11 14 -1.</_>
        <_>
          12 13 11 7 2.</_></rects>
      <tilted>0</tilted></_>
    <_>
      <rects>
        <_>
          12 7 12 4 -1.</_>
        <_>
          12 9 12 2 2.</_></rects>
      <tilted>0</tilted></_>
    <_>
      <rects>
        <_>
          12 10 4 8 -1.</_>
        <_>
          12 14 4 4 2.</_></rects>
      <tilted>0</tilted></_>
    <_>
      <rects>
        <_>
          12 13 10 10 -1.</_>
        <_>
          12 13 5 5 2.</_>
        <_>
          17 18 5 5 2.</_></rects>
      <tilted>0</tilted></_>
    <_>
      <rects>
        <_>
          12 15 12 8 -1.</_>
        <_>
          18 15 6 8 2.</_></rects>
      <tilted>0</tilted></_>
    <_>
      <rects>
        <_>
          12 18 2 6 -1.</_>
        <_>
          13 18 1 6 2.</_></rects>
      <tilted>0</tilted></_>
    <_>
      <rects>
        <_>
          12 22 2 1 -1.</_>
        <_>
          13 22 1 1 2.</_></rects>
      <tilted>0</tilted></_>
    <_>
      <rects>
        <_>
          13 0 1 14 -1.</_>
        <_>
          13 7 1 7 2.</_></rects>
      <tilted>0</tilted></_>
    <_>
      <rects>
        <_>
          13 1 2 2 -1.</_>
        <_>
          13 2 2 1 2.</_></rects>
      <tilted>0</tilted></_>
    <_>
      <rects>
        <_>
          13 1 9 12 -1.</_>
        <_>
          16 1 3 12 3.</_></rects>
      <tilted>0</tilted></_>
    <_>
      <rects>
        <_>
          13 3 10 21 -1.</_>
        <_>
          13 10 10 7 3.</_></rects>
      <tilted>0</tilted></_>
    <_>
      <rects>
        <_>
          13 7 11 12 -1.</_>
        <_>
          13 13 11 6 2.</_></rects>
      <tilted>0</tilted></_>
    <_>
      <rects>
        <_>
          13 12 3 12 -1.</_>
        <_>
          14 12 1 12 3.</_></rects>
      <tilted>0</tilted></_>
    <_>
      <rects>
        <_>
          13 15 10 8 -1.</_>
        <_>
          18 15 5 8 2.</_></rects>
      <tilted>0</tilted></_>
    <_>
      <rects>
        <_>
          14 0 4 22 -1.</_>
        <_>
          14 11 4 11 2.</_></rects>
      <tilted>0</tilted></_>
    <_>
      <rects>
        <_>
          14 4 7 15 -1.</_>
        <_>
          14 9 7 5 3.</_></rects>
      <tilted>0</tilted></_>
    <_>
      <rects>
        <_>
          14 6 2 9 -1.</_>
        <_>
          15 6 1 9 2.</_></rects>
      <tilted>0</tilted></_>
    <_>
      <rects>
        <_>
          14 6 10 2 -1.</_>
        <_>
          14 7 10 1 2.</_></rects>
      <tilted>0</tilted></_>
    <_>
      <rects>
        <_>
          14 11 2 1 -1.</_>
        <_>
          15 11 1 1 2.</_></rects>
      <tilted>0</tilted></_>
    <_>
      <rects>
        <_>
          14 15 2 9 -1.</_>
        <_>
          15 15 1 9 2.</_></rects>
      <tilted>0</tilted></_>
    <_>
      <rects>
        <_>
          14 20 3 4 -1.</_>
        <_>
          15 20 1 4 3.</_></rects>
      <tilted>0</tilted></_>
    <_>
      <rects>
        <_>
          14 23 10 1 -1.</_>
        <_>
          19 23 5 1 2.</_></rects>
      <tilted>0</tilted></_>
    <_>
      <rects>
        <_>
          15 0 9 4 -1.</_>
        <_>
          15 2 9 2 2.</_></rects>
      <tilted>0</tilted></_>
    <_>
      <rects>
        <_>
          15 3 9 15 -1.</_>
        <_>
          15 8 9 5 3.</_></rects>
      <tilted>0</tilted></_>
    <_>
      <rects>
        <_>
          15 6 9 14 -1.</_>
        <_>
          18 6 3 14 3.</_></rects>
      <tilted>0</tilted></_>
    <_>
      <rects>
        <_>
          15 7 9 14 -1.</_>
        <_>
          18 7 3 14 3.</_></rects>
      <tilted>0</tilted></_>
    <_>
      <rects>
        <_>
          15 9 2 2 -1.</_>
        <_>
          16 9 1 2 2.</_></rects>
      <tilted>0</tilted></_>
    <_>
      <rects>
        <_>
          15 17 5 6 -1.</_>
        <_>
          15 20 5 3 2.</_></rects>
      <tilted>0</tilted></_>
    <_>
      <rects>
        <_>
          16 0 5 9 -1.</_>
        <_>
          16 3 5 3 3.</_></rects>
      <tilted>0</tilted></_>
    <_>
      <rects>
        <_>
          16 6 8 15 -1.</_>
        <_>
          20 6 4 15 2.</_></rects>
      <tilted>0</tilted></_>
    <_>
      <rects>
        <_>
          16 8 4 3 -1.</_>
        <_>
          18 8 2 3 2.</_></rects>
      <tilted>0</tilted></_>
    <_>
      <rects>
        <_>
          16 13 2 1 -1.</_>
        <_>
          17 13 1 1 2.</_></rects>
      <tilted>0</tilted></_>
    <_>
      <rects>
        <_>
          16 16 8 3 -1.</_>
        <_>
          20 16 4 3 2.</_></rects>
      <tilted>0</tilted></_>
    <_>
      <rects>
        <_>
          17 7 2 3 -1.</_>
        <_>
          18 7 1 3 2.</_></rects>
      <tilted>0</tilted></_>
    <_>
      <rects>
        <_>
          17 8 4 1 -1.</_>
        <_>
          19 8 2 1 2.</_></rects>
      <tilted>0</tilted></_>
    <_>
      <rects>
        <_>
          17 9 4 1 -1.</_>
        <_>
          19 9 2 1 2.</_></rects>
      <tilted>0</tilted></_>
    <_>
      <rects>
        <_>
          17 15 2 8 -1.</_>
        <_>
          18 15 1 8 2.</_></rects>
      <tilted>0</tilted></_>
    <_>
      <rects>
        <_>
          18 0 2 4 -1.</_>
        <_>
          19 0 1 4 2.</_></rects>
      <tilted>0</tilted></_>
    <_>
      <rects>
        <_>
          18 0 6 6 -1.</_>
        <_>
          18 3 6 3 2.</_></rects>
      <tilted>0</tilted></_>
    <_>
      <rects>
        <_>
          18 7 2 2 -1.</_>
        <_>
          19 7 1 2 2.</_></rects>
      <tilted>0</tilted></_>
    <_>
      <rects>
        <_>
          18 8 2 5 -1.</_>
        <_>
          19 8 1 5 2.</_></rects>
      <tilted>0</tilted></_>
    <_>
      <rects>
        <_>
          18 9 2 3 -1.</_>
        <_>
          19 9 1 3 2.</_></rects>
      <tilted>0</tilted></_>
    <_>
      <rects>
        <_>
          18 15 2 9 -1.</_>
        <_>
          19 15 1 9 2.</_></rects>
      <tilted>0</tilted></_>
    <_>
      <rects>
        <_>
          19 7 2 4 -1.</_>
        <_>
          20 7 1 4 2.</_></rects>
      <tilted>0</tilted></_>
    <_>
      <rects>
        <_>
          19 10 2 4 -1.</_>
        <_>
          20 10 1 4 2.</_></rects>
      <tilted>0</tilted></_>
    <_>
      <rects>
        <_>
          20 0 3 15 -1.</_>
        <_>
          20 5 3 5 3.</_></rects>
      <tilted>0</tilted></_>
    <_>
      <rects>
        <_>
          20 1 3 6 -1.</_>
        <_>
          20 4 3 3 2.</_></rects>
      <tilted>0</tilted></_>
    <_>
      <rects>
        <_>
          20 2 1 21 -1.</_>
        <_>
          20 9 1 7 3.</_></rects>
      <tilted>0</tilted></_>
    <_>
      <rects>
        <_>
          20 5 4 2 -1.</_>
        <_>
          22 5 2 2 2.</_></rects>
      <tilted>0</tilted></_>
    <_>
      <rects>
        <_>
          20 7 4 12 -1.</_>
        <_>
          22 7 2 12 2.</_></rects>
      <tilted>0</tilted></_>
    <_>
      <rects>
        <_>
          20 9 2 4 -1.</_>
        <_>
          21 9 1 4 2.</_></rects>
      <tilted>0</tilted></_>
    <_>
      <rects>
        <_>
          20 10 2 6 -1.</_>
        <_>
          20 12 2 2 3.</_></rects>
      <tilted>0</tilted></_>
    <_>
      <rects>
        <_>
          20 20 3 4 -1.</_>
        <_>
          20 22 3 2 2.</_></rects>
      <tilted>0</tilted></_>
    <_>
      <rects>
        <_>
          21 7 2 3 -1.</_>
        <_>
          22 7 1 3 2.</_></rects>
      <tilted>0</tilted></_>
    <_>
      <rects>
        <_>
          21 11 2 2 -1.</_>
        <_>
          22 11 1 2 2.</_></rects>
      <tilted>0</tilted></_>
    <_>
      <rects>
        <_>
          22 4 2 5 -1.</_>
        <_>
          23 4 1 5 2.</_></rects>
      <tilted>0</tilted></_>
    <_>
      <rects>
        <_>
          22 5 2 5 -1.</_>
        <_>
          23 5 1 5 2.</_></rects>
      <tilted>0</tilted></_>
    <_>
      <rects>
        <_>
          22 5 2 12 -1.</_>
        <_>
          23 5 1 12 2.</_></rects>
      <tilted>0</tilted></_>
    <_>
      <rects>
        <_>
          22 6 2 9 -1.</_>
        <_>
          23 6 1 9 2.</_></rects>
      <tilted>0</tilted></_>
    <_>
      <rects>
        <_>
          22 6 2 10 -1.</_>
        <_>
          22 11 2 5 2.</_></rects>
      <tilted>0</tilted></_>
    <_>
      <rects>
        <_>
          22 7 2 1 -1.</_>
        <_>
          23 7 1 1 2.</_></rects>
      <tilted>0</tilted></_>
    <_>
      <rects>
        <_>
          22 8 2 2 -1.</_>
        <_>
          23 8 1 2 2.</_></rects>
      <tilted>0</tilted></_>
    <_>
      <rects>
        <_>
          22 8 2 6 -1.</_>
        <_>
          23 8 1 6 2.</_></rects>
      <tilted>0</tilted></_>
    <_>
      <rects>
        <_>
          22 8 2 8 -1.</_>
        <_>
          23 8 1 8 2.</_></rects>
      <tilted>0</tilted></_>
    <_>
      <rects>
        <_>
          22 12 2 4 -1.</_>
        <_>
          23 12 1 4 2.</_></rects>
      <tilted>0</tilted></_>
    <_>
      <rects>
        <_>
          22 18 2 6 -1.</_>
        <_>
          22 21 2 3 2.</_></rects>
      <tilted>0</tilted></_>
    <_>
      <rects>
        <_>
          22 20 2 1 -1.</_>
        <_>
          23 20 1 1 2.</_></rects>
      <tilted>0</tilted></_>
    <_>
      <rects>
        <_>
          23 0 1 6 -1.</_>
        <_>
          23 3 1 3 2.</_></rects>
      <tilted>0</tilted></_>
    <_>
      <rects>
        <_>
          23 0 1 8 -1.</_>
        <_>
          23 4 1 4 2.</_></rects>
      <tilted>0</tilted></_>
    <_>
      <rects>
        <_>
          23 0 1 12 -1.</_>
        <_>
          23 6 1 6 2.</_></rects>
      <tilted>0</tilted></_>
    <_>
      <rects>
        <_>
          23 1 1 6 -1.</_>
        <_>
          23 4 1 3 2.</_></rects>
      <tilted>0</tilted></_>
    <_>
      <rects>
        <_>
          23 1 1 12 -1.</_>
        <_>
          23 7 1 6 2.</_></rects>
      <tilted>0</tilted></_>
    <_>
      <rects>
        <_>
          23 2 1 12 -1.</_>
        <_>
          23 6 1 4 3.</_></rects>
      <tilted>0</tilted></_>
    <_>
      <rects>
        <_>
          23 3 1 6 -1.</_>
        <_>
          23 6 1 3 2.</_></rects>
      <tilted>0</tilted></_>
    <_>
      <rects>
        <_>
          23 3 1 8 -1.</_>
        <_>
          23 7 1 4 2.</_></rects>
      <tilted>0</tilted></_>
    <_>
      <rects>
        <_>
          23 4 1 8 -1.</_>
        <_>
          23 8 1 4 2.</_></rects>
      <tilted>0</tilted></_>
    <_>
      <rects>
        <_>
          23 4 1 15 -1.</_>
        <_>
          23 9 1 5 3.</_></rects>
      <tilted>0</tilted></_>
    <_>
      <rects>
        <_>
          23 4 1 18 -1.</_>
        <_>
          23 10 1 6 3.</_></rects>
      <tilted>0</tilted></_>
    <_>
      <rects>
        <_>
          23 5 1 6 -1.</_>
        <_>
          23 8 1 3 2.</_></rects>
      <tilted>0</tilted></_>
    <_>
      <rects>
        <_>
          23 5 1 8 -1.</_>
        <_>
          23 9 1 4 2.</_></rects>
      <tilted>0</tilted></_>
    <_>
      <rects>
        <_>
          23 6 1 6 -1.</_>
        <_>
          23 9 1 3 2.</_></rects>
      <tilted>0</tilted></_>
    <_>
      <rects>
        <_>
          23 7 1 9 -1.</_>
        <_>
          23 10 1 3 3.</_></rects>
      <tilted>0</tilted></_>
    <_>
      <rects>
        <_>
          23 7 1 8 -1.</_>
        <_>
          23 11 1 4 2.</_></rects>
      <tilted>0</tilted></_>
    <_>
      <rects>
        <_>
          23 7 1 12 -1.</_>
        <_>
          23 11 1 4 3.</_></rects>
      <tilted>0</tilted></_>
    <_>
      <rects>
        <_>
          23 11 1 10 -1.</_>
        <_>
          23 16 1 5 2.</_></rects>
      <tilted>0</tilted></_>
    <_>
      <rects>
        <_>
          23 18 1 4 -1.</_>
        <_>
          23 20 1 2 2.</_></rects>
      <tilted>0</tilted></_>
    <_>
      <rects>
        <_>
          23 18 1 6 -1.</_>
        <_>
          23 21 1 3 2.</_></rects>
      <tilted>0</tilted></_></features></cascade>
</opencv_storage>
