<?xml version="1.0"?>
<opencv_storage>
<cascade>
  <stageType>BOOST</stageType>
  <featureType>HAAR</featureType>
  <height>31</height>
  <width>26</width>
  <stageParams>
    <boostType>GAB</boostType>
    <minHitRate>9.9500000476837158e-01</minHitRate>
    <maxFalseAlarm>5.0000000000000000e-01</maxFalseAlarm>
    <weightTrimRate>9.4999998807907104e-01</weightTrimRate>
    <maxDepth>1</maxDepth>
    <maxWeakCount>100</maxWeakCount></stageParams>
  <featureParams>
    <maxCatCount>0</maxCatCount>
    <featSize>1</featSize>
    <mode>BASIC</mode></featureParams>
  <stageNum>9</stageNum>
  <stages>
    <!-- stage 0 -->
    <_>
      <maxWeakCount>2</maxWeakCount>
      <stageThreshold>-3.2270213961601257e-01</stageThreshold>
      <weakClassifiers>
        <_>
          <internalNodes>
            0 -1 1 2.9025703668594360e-01</internalNodes>
          <leafValues>
            -9.5638626813888550e-01 8.1818181276321411e-01</leafValues></_>
        <_>
          <internalNodes>
            0 -1 9 6.4164653420448303e-02</internalNodes>
          <leafValues>
            -8.9316457509994507e-01 6.3368415832519531e-01</leafValues></_></weakClassifiers></_>
    <!-- stage 1 -->
    <_>
      <maxWeakCount>3</maxWeakCount>
      <stageThreshold>-1.0857703685760498e+00</stageThreshold>
      <weakClassifiers>
        <_>
          <internalNodes>
            0 -1 14 -1.5835009515285492e-02</internalNodes>
          <leafValues>
            8.5338348150253296e-01 -7.9794198274612427e-01</leafValues></_>
        <_>
          <internalNodes>
            0 -1 4 -5.0213113427162170e-02</internalNodes>
          <leafValues>
            6.8290686607360840e-01 -8.2674050331115723e-01</leafValues></_>
        <_>
          <internalNodes>
            0 -1 13 -1.2577570974826813e-01</internalNodes>
          <leafValues>
            5.3891205787658691e-01 -9.9333083629608154e-01</leafValues></_></weakClassifiers></_>
    <!-- stage 2 -->
    <_>
      <maxWeakCount>2</maxWeakCount>
      <stageThreshold>-3.7349116802215576e-01</stageThreshold>
      <weakClassifiers>
        <_>
          <internalNodes>
            0 -1 15 1.2963493354618549e-02</internalNodes>
          <leafValues>
            -7.9218304157257080e-01 7.8260868787765503e-01</leafValues></_>
        <_>
          <internalNodes>
            0 -1 8 1.8581006675958633e-02</internalNodes>
          <leafValues>
            -9.8272943496704102e-01 4.1869184374809265e-01</leafValues></_></weakClassifiers></_>
    <!-- stage 3 -->
    <_>
      <maxWeakCount>3</maxWeakCount>
      <stageThreshold>-8.7066489458084106e-01</stageThreshold>
      <weakClassifiers>
        <_>
          <internalNodes>
            0 -1 7 2.0480465143918991e-02</internalNodes>
          <leafValues>
            -6.7381972074508667e-01 8.8532108068466187e-01</leafValues></_>
        <_>
          <internalNodes>
            0 -1 2 3.8119450211524963e-02</internalNodes>
          <leafValues>
            -8.5116142034530640e-01 5.5270552635192871e-01</leafValues></_>
        <_>
          <internalNodes>
            0 -1 12 1.1466190218925476e-02</internalNodes>
          <leafValues>
            -7.4814987182617188e-01 6.5431624650955200e-01</leafValues></_></weakClassifiers></_>
    <!-- stage 4 -->
    <_>
      <maxWeakCount>2</maxWeakCount>
      <stageThreshold>-3.5278862714767456e-01</stageThreshold>
      <weakClassifiers>
        <_>
          <internalNodes>
            0 -1 10 3.9364077150821686e-02</internalNodes>
          <leafValues>
            -8.0128204822540283e-01 5.2781957387924194e-01</leafValues></_>
        <_>
          <internalNodes>
            0 -1 5 2.5252943858504295e-02</internalNodes>
          <leafValues>
            -8.8060820102691650e-01 4.7304394841194153e-01</leafValues></_></weakClassifiers></_>
    <!-- stage 5 -->
    <_>
      <maxWeakCount>2</maxWeakCount>
      <stageThreshold>-1.9583792984485626e-01</stageThreshold>
      <weakClassifiers>
        <_>
          <internalNodes>
            0 -1 11 -6.8310141563415527e-02</internalNodes>
          <leafValues>
            8.4470587968826294e-01 -6.4455783367156982e-01</leafValues></_>
        <_>
          <internalNodes>
            0 -1 19 5.2478732541203499e-03</internalNodes>
          <leafValues>
            -1. 4.4871988892555237e-01</leafValues></_></weakClassifiers></_>
    <!-- stage 6 -->
    <_>
      <maxWeakCount>2</maxWeakCount>
      <stageThreshold>-2.2839942574501038e-01</stageThreshold>
      <weakClassifiers>
        <_>
          <internalNodes>
            0 -1 18 6.1392262578010559e-03</internalNodes>
          <leafValues>
            -6.3989406824111938e-01 6.9658118486404419e-01</leafValues></_>
        <_>
          <internalNodes>
            0 -1 16 3.3413559198379517e-02</internalNodes>
          <leafValues>
            4.1149464249610901e-01 -9.9030816555023193e-01</leafValues></_></weakClassifiers></_>
    <!-- stage 7 -->
    <_>
      <maxWeakCount>4</maxWeakCount>
      <stageThreshold>-9.0315800905227661e-01</stageThreshold>
      <weakClassifiers>
        <_>
          <internalNodes>
            0 -1 17 6.3240155577659607e-03</internalNodes>
          <leafValues>
            -6.4788734912872314e-01 7.2473120689392090e-01</leafValues></_>
        <_>
          <internalNodes>
            0 -1 21 -1.4432268217206001e-03</internalNodes>
          <leafValues>
            4.4322231411933899e-01 -9.5367056131362915e-01</leafValues></_>
        <_>
          <internalNodes>
            0 -1 0 4.7540864907205105e-03</internalNodes>
          <leafValues>
            -1. 3.3905532956123352e-01</leafValues></_>
        <_>
          <internalNodes>
            0 -1 3 -5.0966821610927582e-02</internalNodes>
          <leafValues>
            3.5934454202651978e-01 -8.3120781183242798e-01</leafValues></_></weakClassifiers></_>
    <!-- stage 8 -->
    <_>
      <maxWeakCount>2</maxWeakCount>
      <stageThreshold>-3.0389389395713806e-01</stageThreshold>
      <weakClassifiers>
        <_>
          <internalNodes>
            0 -1 6 2.8410650789737701e-02</internalNodes>
          <leafValues>
            -6.4273202419281006e-01 7.2984749078750610e-01</leafValues></_>
        <_>
          <internalNodes>
            0 -1 20 -3.2665045000612736e-03</internalNodes>
          <leafValues>
            -9.8861557245254517e-01 3.3883816003799438e-01</leafValues></_></weakClassifiers></_></stages>
  <features>
    <_>
      <rects>
        <_>
          0 3 3 26 -1.</_>
        <_>
          0 16 3 13 2.</_></rects>
      <tilted>0</tilted></_>
    <_>
      <rects>
        <_>
          0 5 24 24 -1.</_>
        <_>
          8 5 8 24 3.</_></rects>
      <tilted>0</tilted></_>
    <_>
      <rects>
        <_>
          1 10 10 9 -1.</_>
        <_>
          6 10 5 9 2.</_></rects>
      <tilted>0</tilted></_>
    <_>
      <rects>
        <_>
          5 21 13 10 -1.</_>
        <_>
          5 26 13 5 2.</_></rects>
      <tilted>0</tilted></_>
    <_>
      <rects>
        <_>
          5 21 14 10 -1.</_>
        <_>
          5 26 14 5 2.</_></rects>
      <tilted>0</tilted></_>
    <_>
      <rects>
        <_>
          6 3 8 12 -1.</_>
        <_>
          6 7 8 4 3.</_></rects>
      <tilted>0</tilted></_>
    <_>
      <rects>
        <_>
          7 11 6 6 -1.</_>
        <_>
          9 11 2 6 3.</_></rects>
      <tilted>0</tilted></_>
    <_>
      <rects>
        <_>
          7 12 6 5 -1.</_>
        <_>
          9 12 2 5 3.</_></rects>
      <tilted>0</tilted></_>
    <_>
      <rects>
        <_>
          7 16 13 12 -1.</_>
        <_>
          7 20 13 4 3.</_></rects>
      <tilted>0</tilted></_>
    <_>
      <rects>
        <_>
          9 0 9 18 -1.</_>
        <_>
          9 6 9 6 3.</_></rects>
      <tilted>0</tilted></_>
    <_>
      <rects>
        <_>
          9 2 12 7 -1.</_>
        <_>
          13 2 4 7 3.</_></rects>
      <tilted>0</tilted></_>
    <_>
      <rects>
        <_>
          9 12 9 8 -1.</_>
        <_>
          12 12 3 8 3.</_></rects>
      <tilted>0</tilted></_>
    <_>
      <rects>
        <_>
          10 0 13 4 -1.</_>
        <_>
          10 2 13 2 2.</_></rects>
      <tilted>0</tilted></_>
    <_>
      <rects>
        <_>
          10 8 16 17 -1.</_>
        <_>
          18 8 8 17 2.</_></rects>
      <tilted>0</tilted></_>
    <_>
      <rects>
        <_>
          10 9 6 11 -1.</_>
        <_>
          12 9 2 11 3.</_></rects>
      <tilted>0</tilted></_>
    <_>
      <rects>
        <_>
          13 2 4 17 -1.</_>
        <_>
          15 2 2 17 2.</_></rects>
      <tilted>0</tilted></_>
    <_>
      <rects>
        <_>
          16 4 10 18 -1.</_>
        <_>
          16 10 10 6 3.</_></rects>
      <tilted>0</tilted></_>
    <_>
      <rects>
        <_>
          16 9 3 11 -1.</_>
        <_>
          17 9 1 11 3.</_></rects>
      <tilted>0</tilted></_>
    <_>
      <rects>
        <_>
          16 10 3 10 -1.</_>
        <_>
          17 10 1 10 3.</_></rects>
      <tilted>0</tilted></_>
    <_>
      <rects>
        <_>
          17 3 7 21 -1.</_>
        <_>
          17 10 7 7 3.</_></rects>
      <tilted>0</tilted></_>
    <_>
      <rects>
        <_>
          22 14 4 13 -1.</_>
        <_>
          24 14 2 13 2.</_></rects>
      <tilted>0</tilted></_>
    <_>
      <rects>
        <_>
          24 8 2 12 -1.</_>
        <_>
          24 14 2 6 2.</_></rects>
      <tilted>0</tilted></_></features></cascade>
</opencv_storage>
